template_id,0,1,2,3,4,5,6,7,8,9,10,11,12,13,14,15,16,17,18,19,20,21,22,23,24,25,26,27,28,29,30,31
832ad5d0,0.13639654,-0.10906089,0.03891999,0.0047921226,-0.16610073,-0.6440154,-0.3849868,-0.70823675,-0.39762184,0.22602826,-0.5437061,-0.0036898523,0.2401875,-0.26217085,-0.28798744,-0.5799259,-0.12935497,-0.013477954,-0.44522852,0.14789881,-0.653558,0.2656846,0.6007049,-0.18445972,0.56382596,0.06840694,-0.15581365,-0.28686342,0.47801825,0.06317546,0.022282647,-0.17780332
9ebf1c9b,0.026916653,0.018999511,0.009108193,-0.14068162,-0.3363621,-0.030736782,-0.27395567,-0.18914868,-0.29614595,0.02938218,-0.37029064,0.02531622,0.054078534,0.15313059,0.013465259,-0.21583572,-0.3171536,-0.13392597,-0.07606347,-0.16323242,-0.58002424,-0.018017653,0.09980279,0.0705684,-0.085892275,-0.44629374,-0.5310749,0.18484871,0.05847084,0.23345399,0.05919596,0.21761954
33a7fe87,0.4699668,0.014603618,-0.023690345,-0.86983764,0.291186,-0.62045175,-0.3272332,-0.13424385,-0.28237724,-0.16672646,-0.74514145,0.17937437,0.6568898,-0.40933573,0.26492992,-0.434629,-0.17597923,-0.12713845,0.21480212,-0.05768564,-0.32347885,-0.04871722,0.3491725,-0.11279163,0.2171183,-0.09190087,-0.24803813,0.017227408,0.45417148,0.2577649,-0.10590421,-0.24674693
0cb83fc1,0.102080785,-0.218359,0.13723035,-0.05305708,-0.18609156,-0.419414,-0.38640296,-0.5525089,-0.512068,0.22227065,-0.44051087,0.046644136,0.15583311,-0.26751024,-0.24052459,-0.5316653,-0.083961725,-0.033201106,-0.41443804,0.15146501,-0.51424235,0.24577855,0.47271657,-0.17634207,0.4549211,-0.091325946,-0.18857646,-0.29074615,0.3838198,0.040114272,-0.01722498,-0.06390617
b470c3d0,0.3779234,-0.2888539,-0.084432855,-0.16152565,-0.26985613,0.3216065,-0.14312859,-0.06775649,-0.111500315,0.23009051,0.06628003,0.07959067,0.0037026785,-0.2063079,0.18405761,-0.5612727,-0.17736568,0.17612912,0.12511243,0.015057179,0.23460819,0.041195486,0.38738796,0.011767008,0.027166825,0.045779012,-0.1850708,0.19171332,0.040884227,0.3462056,0.2283377,0.2422062
43b5caf2,0.06065985,-0.21628076,0.1462911,-0.026424766,-0.19645713,-0.44021124,-0.39691204,-0.56381017,-0.5000338,0.23580837,-0.46435085,0.015054448,0.17381874,-0.28614002,-0.24038021,-0.54752916,-0.108170256,-0.03086316,-0.40854356,0.13421392,-0.52696997,0.28019056,0.4713198,-0.15667646,0.4467521,-0.11816682,-0.2175637,-0.28352284,0.38251537,0.019489976,-0.035838265,-0.064547725
a465a306,0.13639654,-0.10906089,0.03891999,0.0047921226,-0.16610073,-0.6440154,-0.3849868,-0.70823675,-0.39762184,0.22602826,-0.5437061,-0.0036898523,0.2401875,-0.26217085,-0.28798744,-0.5799259,-0.12935497,-0.013477954,-0.44522852,0.14789881,-0.653558,0.2656846,0.6007049,-0.18445972,0.56382596,0.06840694,-0.15581365,-0.28686342,0.47801825,0.06317546,0.022282647,-0.17780332
19afe0f3,0.09630493,-0.21709305,0.14728038,-0.07507155,-0.18512967,-0.4191518,-0.360648,-0.51541156,-0.49812832,0.21091634,-0.4475666,0.03650496,0.15966696,-0.24056217,-0.24460877,-0.5427693,-0.08237024,-0.06848044,-0.38576365,0.15742026,-0.49431926,0.23414397,0.4707105,-0.19650334,0.43142945,-0.10156653,-0.17828263,-0.29751512,0.3680692,0.06353511,-0.014030767,-0.053096667
80cebd15,-0.18548892,-0.2558336,0.2508121,-0.09442906,0.08284584,-0.41687167,-0.48537967,-0.1766904,-0.35788426,0.28699407,-0.45669812,-0.13868679,0.25726965,-0.105991095,-0.08452749,-0.76388973,0.11189716,-0.09483952,-0.29654133,-0.041654408,-0.46640763,0.258621,0.21923488,0.034577005,0.22287169,0.18206441,0.101092026,-0.30833206,0.27230117,0.0036325294,0.09733594,-0.24259946
f4773be4,0.44323468,-0.27337286,-0.17267461,-0.085646056,-0.38014805,0.34338906,-0.20292775,-0.086865254,-0.18671843,0.31130984,0.048910722,0.10013747,0.0861003,-0.13544075,0.1262296,-0.5277612,-0.17567894,0.26223743,0.26508966,0.13851674,0.25669032,0.15543248,0.42562595,-0.27148035,-0.03046774,0.2054084,-0.15918663,0.17703512,0.08726169,0.2824024,0.1901552,0.18208969
b2739fbf,0.736032,-0.31684613,-0.5044251,0.24966452,-0.05083354,0.5624398,-0.46511176,-0.30244735,0.1632554,0.21129337,0.14298107,0.7700144,-0.54692173,-0.2864052,-0.3881364,-0.6263444,-0.033546682,0.22401583,0.40426508,0.11865936,0.15621836,0.5174988,-0.13962254,-0.0045089247,-0.00013921969,0.48121652,-0.20074975,0.45216745,0.10250492,0.45446938,0.01436305,0.29559574
0a52d6b7,0.08420567,-0.17615335,-0.028149426,0.024008341,-0.15371856,-0.15614974,-0.24736029,-0.35435328,-0.2736477,0.13836835,-0.32555857,0.16620864,0.15973063,-0.15692247,-0.11116058,-0.281389,-0.25791427,0.013857836,-0.07616462,0.034972094,-0.43891737,0.070890345,0.1616645,0.016862603,0.097893566,-0.16255875,-0.25187963,-0.0483675,0.23208119,0.12050468,0.055646077,0.014479606
1cf05be9,0.33857295,-0.0022508774,-0.108011685,0.031504948,0.71564925,-0.06227879,0.09519623,-0.03252917,-0.0014545469,0.36066964,-0.071918376,0.4198467,0.006421952,0.117539935,0.54106146,-0.08983699,-0.15056276,0.7912146,0.05740928,-0.16990153,-0.21242969,-1.0387132,-0.25713307,-0.8297981,0.07407972,0.731937,-0.5288616,0.4869098,0.0989066,-0.18972072,-0.073501244,0.056102972
fd02ca00,0.5083105,-0.08594309,-0.34417838,0.046997152,0.21783371,0.2286863,-0.11483676,-0.15965591,-0.09290731,0.18630494,-0.16401798,0.55225044,0.019179374,0.164637,0.19954264,-0.3149612,-0.11324362,0.6458905,0.43853277,-0.0068332367,-0.022406178,-0.07739592,0.058089584,-0.5580783,-0.09076467,0.4703942,-0.1979697,0.43407243,0.02675276,0.05362749,0.072690584,0.17237593
6309d070,0.25606218,-0.21890153,-0.34254378,-0.06820409,-0.041910492,0.25044242,-0.16761662,-0.11878665,-0.077452324,0.1996963,0.0860305,0.031291407,0.06244509,-0.30745786,-0.12149911,0.012317462,0.40257642,0.5728034,0.114641756,0.1918574,0.11572212,0.12174286,0.42272323,-0.16002774,0.27000913,-0.21067561,-0.5035066,-0.26352075,0.012240956,0.47683287,-0.07694306,-0.18422073
e6ed8ccf,0.23199728,-0.16445437,-0.020293174,-0.49020278,0.06700688,0.03013976,-0.2348385,-0.2633801,0.047018625,0.28710815,-0.2610983,0.11157695,-0.017649641,-0.12219268,-0.21652973,-0.4824365,-0.1759465,0.07364429,-0.029765774,0.09160245,-0.4021398,0.2298787,0.41112396,-0.49008206,0.14282839,-0.008053972,-0.1652974,0.075096615,0.1687576,0.17539036,0.028017573,0.048748333
0c7206b2,0.22567469,-0.13639462,0.013549703,-0.2898204,0.052187156,0.16678694,-0.08066712,-0.030417912,-0.31235093,0.24941735,0.24978353,-0.27872542,-0.038479198,0.1975027,0.18584892,-0.45438775,-0.36390212,0.2768799,-0.039292526,-0.05690299,-0.10313946,-0.20966266,0.11659221,0.84281915,-0.28166372,-0.53018904,-0.37489146,0.648061,-0.73568535,0.28434384,0.2446998,0.46201783
a8fb8d16,0.26792672,0.032888416,0.10367278,-0.37929443,0.04049474,-0.36781585,-0.21714994,-0.31622812,-0.3183033,0.33321607,-0.38702565,0.06274924,0.10941944,-0.03274524,-0.110053025,-0.57856566,-0.31713203,0.10357135,-0.19210552,-0.03291984,-0.67984253,0.15981571,0.45871052,-0.12507616,0.18450816,-0.20988506,-0.0681928,-0.034294803,0.062416185,0.06609439,0.13906056,-0.034680646
4c2da2e3,0.4836385,0.022103079,-0.4265617,0.056691453,0.21978313,-0.29257855,-0.10103987,0.004685733,-0.91644657,0.14192718,0.08493795,0.3450731,0.20175603,-0.93142074,0.05621801,-0.3857828,-0.68743116,0.6581298,0.09114911,-0.2783654,-0.9175746,0.16057508,0.41124016,0.31540376,0.47861916,0.22346078,-0.031984832,0.15390235,0.04469037,-0.19210954,-0.4466351,-0.23463175
1d5f5b9f,0.29695043,-0.009296107,-0.016561542,-0.08613857,-0.20573734,-0.5432184,-0.2734333,-0.5139496,-0.5828859,0.28408167,-0.18857637,-0.14548399,0.31580037,-0.1421502,-0.13509405,-0.5204676,-0.21616316,0.10169326,-0.41969785,-0.045201417,-0.66985804,0.17025213,0.49612647,0.1375308,0.31811053,-0.10167295,-0.10583851,-0.12002768,0.07576798,-0.03743104,0.06613867,-0.14750174
35240dfd,0.18848014,-0.048066746,-0.07270076,0.09644843,-0.31144533,-0.7336079,-0.41057426,-0.62109023,-0.42906025,0.25595385,-0.47699904,-0.041168425,0.20385613,-0.36248237,-0.33449075,-0.67690694,-0.08210714,0.015333896,-0.5410184,0.21990988,-0.66131854,0.5117742,0.7050743,-0.17394443,0.55161464,-0.040946383,-0.104899764,-0.37650493,0.4613043,-0.026996339,-0.0007441889,-0.15030353
187f72ee,0.17158844,-0.018442553,0.10441536,-0.12775834,-0.31809172,-0.05065577,-0.12943651,-0.4086967,-0.36705896,-0.081799015,-0.16861492,0.03336937,-0.09964699,0.43428418,0.002330809,-0.2463947,-0.147412,0.44983202,-0.02338296,-0.064659774,-0.14701998,-0.11239686,0.041259635,0.5750919,0.16639966,-0.085076906,-0.13882159,0.18482965,-0.5532048,0.115457185,0.2355581,0.19540448
129f0cd2,0.25673166,0.0018701608,0.018793201,-0.4485346,0.015435198,-0.31657404,-0.28378853,-0.29459766,-0.43483368,0.20869046,-0.25526926,0.11604837,0.21638133,-0.22660875,-0.0944146,-0.41724783,-0.1986564,0.16045177,-0.31439137,0.051427256,-0.66296875,0.05060153,0.443614,-0.13886781,0.17546792,-0.19762413,-0.05250002,-0.15239199,0.060010523,-0.040799472,0.0961473,-0.079798974
